## LambdaMART
## No. of trees = 1000
## No. of leaves = 10
## No. of threshold candidates = 256
## Learning rate = 0.1
## Stop early = 100
## NDCG@10 = 0.5368
<ensemble>
	<tree id="1" weight="0.1">
		<split>
			<feature> 39 </feature>
			<threshold> 0.6484375 </threshold>
			<split pos="left">
				<feature> 42 </feature>
				<threshold> 0.0 </threshold>
				<split pos="left">
					<output> -1.421460747718811 </output>
				</split>
				<split pos="right">
					<feature> 38 </feature>
					<threshold> 0.453125 </threshold>
					<split pos="left">
						<output> -1.4260926246643066 </output>
					</split>
					<split pos="right">
						<feature> 38 </feature>
						<threshold> 0.45703125 </threshold>
						<split pos="left">
							<output> 1.3788107633590698 </output>
						</split>
						<split pos="right">
							<output> -0.36468327045440674 </output>
						</split>
					</split>
				</split>
			</split>
			<split pos="right">
				<feature> 29 </feature>
				<threshold> 0.65234375 </threshold>
				<split pos="left">
					<feature> 38 </feature>
					<threshold> 0.78125 </threshold>
					<split pos="left">
						<output> 0.36197352409362793 </output>
					</split>
					<split pos="right">
						<feature> 38 </feature>
						<threshold> 0.78515625 </threshold>
						<split pos="left">
							<output> 1.7220419645309448 </output>
						</split>
						<split pos="right">
							<feature> 39 </feature>
							<threshold> 0.91796875 </threshold>
							<split pos="left">
								<output> 0.659546434879303 </output>
							</split>
							<split pos="right">
								<output> 1.1664862632751465 </output>
							</split>
						</split>
					</split>
				</split>
				<split pos="right">
					<feature> 23 </feature>
					<threshold> 0.18359375 </threshold>
					<split pos="left">
						<output> 2.0 </output>
					</split>
					<split pos="right">
						<output> 1.245375633239746 </output>
					</split>
				</split>
			</split>
		</split>
	</tree>
	<tree id="2" weight="0.1">
		<split>
			<feature> 39 </feature>
			<threshold> 0.7421875 </threshold>
			<split pos="left">
				<output> -1.0602823495864868 </output>
			</split>
			<split pos="right">
				<feature> 29 </feature>
				<threshold> 0.75390625 </threshold>
				<split pos="left">
					<feature> 39 </feature>
					<threshold> 0.91796875 </threshold>
					<split pos="left">
						<output> 0.19444647431373596 </output>
					</split>
					<split pos="right">
						<feature> 34 </feature>
						<threshold> 0.2890625 </threshold>
						<split pos="left">
							<feature> 24 </feature>
							<threshold> 0.87109375 </threshold>
							<split pos="left">
								<output> 0.40559354424476624 </output>
							</split>
							<split pos="right">
								<output> 1.2245906591415405 </output>
							</split>
						</split>
						<split pos="right">
							<feature> 19 </feature>
							<threshold> 0.08984375 </threshold>
							<split pos="left">
								<output> 1.7871172428131104 </output>
							</split>
							<split pos="right">
								<output> 1.3836849927902222 </output>
							</split>
						</split>
					</split>
				</split>
				<split pos="right">
					<feature> 39 </feature>
					<threshold> 0.75 </threshold>
					<split pos="left">
						<feature> 11 </feature>
						<threshold> 0.01171875 </threshold>
						<split pos="left">
							<output> 1.8329648971557617 </output>
						</split>
						<split pos="right">
							<output> 1.632643222808838 </output>
						</split>
					</split>
					<split pos="right">
						<feature> 39 </feature>
						<threshold> 0.828125 </threshold>
						<split pos="left">
							<output> 0.9299647212028503 </output>
						</split>
						<split pos="right">
							<output> 1.4841511249542236 </output>
						</split>
					</split>
				</split>
			</split>
		</split>
	</tree>
	<tree id="3" weight="0.1">
		<split>
			<feature> 39 </feature>
			<threshold> 0.91796875 </threshold>
			<split pos="left">
				<feature> 39 </feature>
				<threshold> 0.74609375 </threshold>
				<split pos="left">
					<output> -1.1639137268066406 </output>
				</split>
				<split pos="right">
					<feature> 29 </feature>
					<threshold> 0.8984375 </threshold>
					<split pos="left">
						<output> 0.1495984047651291 </output>
					</split>
					<split pos="right">
						<feature> 39 </feature>
						<threshold> 0.75 </threshold>
						<split pos="left">
							<output> 1.5634628534317017 </output>
						</split>
						<split pos="right">
							<output> 1.3025044202804565 </output>
						</split>
					</split>
				</split>
			</split>
			<split pos="right">
				<feature> 30 </feature>
				<threshold> 0.05078125 </threshold>
				<split pos="left">
					<feature> 24 </feature>
					<threshold> 0.87109375 </threshold>
					<split pos="left">
						<output> 0.41979822516441345 </output>
					</split>
					<split pos="right">
						<output> 1.0768216848373413 </output>
					</split>
				</split>
				<split pos="right">
					<feature> 13 </feature>
					<threshold> 0.12890625 </threshold>
					<split pos="left">
						<output> 1.6970669031143188 </output>
					</split>
					<split pos="right">
						<feature> 19 </feature>
						<threshold> 0.08984375 </threshold>
						<split pos="left">
							<feature> 19 </feature>
							<threshold> 0.0859375 </threshold>
							<split pos="left">
								<output> 1.4773321151733398 </output>
							</split>
							<split pos="right">
								<output> 1.614944338798523 </output>
							</split>
						</split>
						<split pos="right">
							<output> 1.1964383125305176 </output>
						</split>
					</split>
				</split>
			</split>
		</split>
	</tree>
	<tree id="4" weight="0.1">
		<split>
			<feature> 39 </feature>
			<threshold> 0.91796875 </threshold>
			<split pos="left">
				<feature> 29 </feature>
				<threshold> 0.8984375 </threshold>
				<split pos="left">
					<output> -0.7444555759429932 </output>
				</split>
				<split pos="right">
					<feature> 39 </feature>
					<threshold> 0.74609375 </threshold>
					<split pos="left">
						<output> -0.5572742819786072 </output>
					</split>
					<split pos="right">
						<feature> 39 </feature>
						<threshold> 0.75 </threshold>
						<split pos="left">
							<output> 1.4238842725753784 </output>
						</split>
						<split pos="right">
							<output> 1.1595531702041626 </output>
						</split>
					</split>
				</split>
			</split>
			<split pos="right">
				<feature> 30 </feature>
				<threshold> 0.05078125 </threshold>
				<split pos="left">
					<feature> 24 </feature>
					<threshold> 0.87109375 </threshold>
					<split pos="left">
						<output> 0.3146760165691376 </output>
					</split>
					<split pos="right">
						<output> 0.9491686820983887 </output>
					</split>
				</split>
				<split pos="right">
					<feature> 13 </feature>
					<threshold> 0.140625 </threshold>
					<split pos="left">
						<output> 1.5525081157684326 </output>
					</split>
					<split pos="right">
						<feature> 19 </feature>
						<threshold> 0.08984375 </threshold>
						<split pos="left">
							<feature> 19 </feature>
							<threshold> 0.0859375 </threshold>
							<split pos="left">
								<output> 1.337924838066101 </output>
							</split>
							<split pos="right">
								<output> 1.4710043668746948 </output>
							</split>
						</split>
						<split pos="right">
							<output> 1.0319232940673828 </output>
						</split>
					</split>
				</split>
			</split>
		</split>
	</tree>
	<tree id="5" weight="0.1">
		<split>
			<feature> 39 </feature>
			<threshold> 0.91796875 </threshold>
			<split pos="left">
				<feature> 39 </feature>
				<threshold> 0.74609375 </threshold>
				<split pos="left">
					<output> -0.9634977579116821 </output>
				</split>
				<split pos="right">
					<feature> 29 </feature>
					<threshold> 0.8984375 </threshold>
					<split pos="left">
						<output> 0.08499322831630707 </output>
					</split>
					<split pos="right">
						<feature> 22 </feature>
						<threshold> 0.72265625 </threshold>
						<split pos="left">
							<output> 1.4062690734863281 </output>
						</split>
						<split pos="right">
							<output> 0.8897926807403564 </output>
						</split>
					</split>
				</split>
			</split>
			<split pos="right">
				<feature> 31 </feature>
				<threshold> 0.00390625 </threshold>
				<split pos="left">
					<feature> 24 </feature>
					<threshold> 0.75390625 </threshold>
					<split pos="left">
						<output> -0.6117189526557922 </output>
					</split>
					<split pos="right">
						<output> 0.7978625893592834 </output>
					</split>
				</split>
				<split pos="right">
					<feature> 29 </feature>
					<threshold> 0.08203125 </threshold>
					<split pos="left">
						<output> 1.4753823280334473 </output>
					</split>
					<split pos="right">
						<feature> 19 </feature>
						<threshold> 0.08984375 </threshold>
						<split pos="left">
							<feature> 3 </feature>
							<threshold> 0.25 </threshold>
							<split pos="left">
								<output> 1.397121787071228 </output>
							</split>
							<split pos="right">
								<output> 1.2297559976577759 </output>
							</split>
						</split>
						<split pos="right">
							<output> 0.9640867114067078 </output>
						</split>
					</split>
				</split>
			</split>
		</split>
	</tree>
	<tree id="6" weight="0.1">
		<split>
			<feature> 39 </feature>
			<threshold> 0.91796875 </threshold>
			<split pos="left">
				<feature> 39 </feature>
				<threshold> 0.74609375 </threshold>
				<split pos="left">
					<output> -0.8707653880119324 </output>
				</split>
				<split pos="right">
					<feature> 29 </feature>
					<threshold> 0.8984375 </threshold>
					<split pos="left">
						<output> 0.09122750908136368 </output>
					</split>
					<split pos="right">
						<output> 1.012854814529419 </output>
					</split>
				</split>
			</split>
			<split pos="right">
				<feature> 31 </feature>
				<threshold> 0.00390625 </threshold>
				<split pos="left">
					<feature> 24 </feature>
					<threshold> 0.75390625 </threshold>
					<split pos="left">
						<output> -0.5956006646156311 </output>
					</split>
					<split pos="right">
						<feature> 19 </feature>
						<threshold> 0.546875 </threshold>
						<split pos="left">
							<output> 0.7896219491958618 </output>
						</split>
						<split pos="right">
							<output> -0.0251950453966856 </output>
						</split>
					</split>
				</split>
				<split pos="right">
					<feature> 29 </feature>
					<threshold> 0.08203125 </threshold>
					<split pos="left">
						<output> 1.410189151763916 </output>
					</split>
					<split pos="right">
						<feature> 19 </feature>
						<threshold> 0.08984375 </threshold>
						<split pos="left">
							<feature> 3 </feature>
							<threshold> 0.25 </threshold>
							<split pos="left">
								<output> 1.3183815479278564 </output>
							</split>
							<split pos="right">
								<output> 1.1296945810317993 </output>
							</split>
						</split>
						<split pos="right">
							<output> 0.8588646650314331 </output>
						</split>
					</split>
				</split>
			</split>
		</split>
	</tree>
	<tree id="7" weight="0.1">
		<split>
			<feature> 39 </feature>
			<threshold> 0.91796875 </threshold>
			<split pos="left">
				<feature> 29 </feature>
				<threshold> 0.8984375 </threshold>
				<split pos="left">
					<output> -0.5411862134933472 </output>
				</split>
				<split pos="right">
					<feature> 39 </feature>
					<threshold> 0.74609375 </threshold>
					<split pos="left">
						<output> -0.28342971205711365 </output>
					</split>
					<split pos="right">
						<feature> 22 </feature>
						<threshold> 0.71875 </threshold>
						<split pos="left">
							<output> 1.2717759609222412 </output>
						</split>
						<split pos="right">
							<output> 0.7055633068084717 </output>
						</split>
					</split>
				</split>
			</split>
			<split pos="right">
				<feature> 30 </feature>
				<threshold> 0.05078125 </threshold>
				<split pos="left">
					<feature> 24 </feature>
					<threshold> 0.74609375 </threshold>
					<split pos="left">
						<output> -0.5880143046379089 </output>
					</split>
					<split pos="right">
						<output> 0.6097195148468018 </output>
					</split>
				</split>
				<split pos="right">
					<feature> 13 </feature>
					<threshold> 0.12890625 </threshold>
					<split pos="left">
						<output> 1.34148371219635 </output>
					</split>
					<split pos="right">
						<feature> 19 </feature>
						<threshold> 0.08984375 </threshold>
						<split pos="left">
							<feature> 3 </feature>
							<threshold> 0.25 </threshold>
							<split pos="left">
								<output> 1.2602558135986328 </output>
							</split>
							<split pos="right">
								<output> 1.0203827619552612 </output>
							</split>
						</split>
						<split pos="right">
							<output> 0.7562780976295471 </output>
						</split>
					</split>
				</split>
			</split>
		</split>
	</tree>
	<tree id="8" weight="0.1">
		<split>
			<feature> 39 </feature>
			<threshold> 0.828125 </threshold>
			<split pos="left">
				<feature> 38 </feature>
				<threshold> 0.640625 </threshold>
				<split pos="left">
					<output> -0.9160672426223755 </output>
				</split>
				<split pos="right">
					<feature> 29 </feature>
					<threshold> 0.90625 </threshold>
					<split pos="left">
						<output> -0.10601601749658585 </output>
					</split>
					<split pos="right">
						<output> 0.6231254935264587 </output>
					</split>
				</split>
			</split>
			<split pos="right">
				<feature> 25 </feature>
				<threshold> 0.63671875 </threshold>
				<split pos="left">
					<feature> 24 </feature>
					<threshold> 0.8671875 </threshold>
					<split pos="left">
						<output> 0.16146118938922882 </output>
					</split>
					<split pos="right">
						<feature> 29 </feature>
						<threshold> 0.734375 </threshold>
						<split pos="left">
							<output> 0.5739033222198486 </output>
						</split>
						<split pos="right">
							<output> 0.9323846697807312 </output>
						</split>
					</split>
				</split>
				<split pos="right">
					<feature> 11 </feature>
					<threshold> 0.015625 </threshold>
					<split pos="left">
						<output> 1.144025206565857 </output>
					</split>
					<split pos="right">
						<feature> 17 </feature>
						<threshold> 0.203125 </threshold>
						<split pos="left">
							<feature> 42 </feature>
							<threshold> 0.1953125 </threshold>
							<split pos="left">
								<output> 1.156550407409668 </output>
							</split>
							<split pos="right">
								<output> 0.8547295331954956 </output>
							</split>
						</split>
						<split pos="right">
							<output> 0.682197093963623 </output>
						</split>
					</split>
				</split>
			</split>
		</split>
	</tree>
	<tree id="9" weight="0.1">
		<split>
			<feature> 39 </feature>
			<threshold> 0.828125 </threshold>
			<split pos="left">
				<feature> 39 </feature>
				<threshold> 0.58203125 </threshold>
				<split pos="left">
					<output> -0.9352856278419495 </output>
				</split>
				<split pos="right">
					<feature> 29 </feature>
					<threshold> 0.91015625 </threshold>
					<split pos="left">
						<output> -0.15283861756324768 </output>
					</split>
					<split pos="right">
						<output> 0.6902467012405396 </output>
					</split>
				</split>
			</split>
			<split pos="right">
				<feature> 25 </feature>
				<threshold> 0.63671875 </threshold>
				<split pos="left">
					<feature> 24 </feature>
					<threshold> 0.8671875 </threshold>
					<split pos="left">
						<output> 0.12635593116283417 </output>
					</split>
					<split pos="right">
						<feature> 24 </feature>
						<threshold> 0.87890625 </threshold>
						<split pos="left">
							<output> 1.0687801837921143 </output>
						</split>
						<split pos="right">
							<output> 0.5243673920631409 </output>
						</split>
					</split>
				</split>
				<split pos="right">
					<feature> 17 </feature>
					<threshold> 0.1953125 </threshold>
					<split pos="left">
						<feature> 15 </feature>
						<threshold> 0.01953125 </threshold>
						<split pos="left">
							<output> 1.1648356914520264 </output>
						</split>
						<split pos="right">
							<feature> 42 </feature>
							<threshold> 0.18359375 </threshold>
							<split pos="left">
								<output> 1.0874528884887695 </output>
							</split>
							<split pos="right">
								<output> 0.8140287399291992 </output>
							</split>
						</split>
					</split>
					<split pos="right">
						<output> 0.6516739726066589 </output>
					</split>
				</split>
			</split>
		</split>
	</tree>
	<tree id="10" weight="0.1">
		<split>
			<feature> 39 </feature>
			<threshold> 0.828125 </threshold>
			<split pos="left">
				<feature> 39 </feature>
				<threshold> 0.58203125 </threshold>
				<split pos="left">
					<output> -0.8827840685844421 </output>
				</split>
				<split pos="right">
					<feature> 29 </feature>
					<threshold> 0.91015625 </threshold>
					<split pos="left">
						<output> -0.11567479372024536 </output>
					</split>
					<split pos="right">
						<output> 0.6148385405540466 </output>
					</split>
				</split>
			</split>
			<split pos="right">
				<feature> 25 </feature>
				<threshold> 0.63671875 </threshold>
				<split pos="left">
					<feature> 24 </feature>
					<threshold> 0.8671875 </threshold>
					<split pos="left">
						<output> 0.1161608099937439 </output>
					</split>
					<split pos="right">
						<feature> 24 </feature>
						<threshold> 0.87890625 </threshold>
						<split pos="left">
							<output> 0.9468647837638855 </output>
						</split>
						<split pos="right">
							<feature> 29 </feature>
							<threshold> 0.66015625 </threshold>
							<split pos="left">
								<output> 0.3307441771030426 </output>
							</split>
							<split pos="right">
								<output> 0.8351317048072815 </output>
							</split>
						</split>
					</split>
				</split>
				<split pos="right">
					<feature> 17 </feature>
					<threshold> 0.1953125 </threshold>
					<split pos="left">
						<feature> 15 </feature>
						<threshold> 0.01953125 </threshold>
						<split pos="left">
							<output> 1.1284254789352417 </output>
						</split>
						<split pos="right">
							<output> 0.9062607884407043 </output>
						</split>
					</split>
					<split pos="right">
						<output> 0.5629372596740723 </output>
					</split>
				</split>
			</split>
		</split>
	</tree>
	<tree id="11" weight="0.1">
		<split>
			<feature> 39 </feature>
			<threshold> 0.828125 </threshold>
			<split pos="left">
				<feature> 40 </feature>
				<threshold> 0.6015625 </threshold>
				<split pos="left">
					<output> -0.8661149740219116 </output>
				</split>
				<split pos="right">
					<feature> 29 </feature>
					<threshold> 0.7734375 </threshold>
					<split pos="left">
						<output> -0.12960414588451385 </output>
					</split>
					<split pos="right">
						<output> 0.5378494262695312 </output>
					</split>
				</split>
			</split>
			<split pos="right">
				<feature> 25 </feature>
				<threshold> 0.63671875 </threshold>
				<split pos="left">
					<feature> 24 </feature>
					<threshold> 0.8671875 </threshold>
					<split pos="left">
						<output> 0.08245878666639328 </output>
					</split>
					<split pos="right">
						<feature> 20 </feature>
						<threshold> 0.1953125 </threshold>
						<split pos="left">
							<feature> 19 </feature>
							<threshold> 0.19140625 </threshold>
							<split pos="left">
								<output> 0.7703710794448853 </output>
							</split>
							<split pos="right">
								<output> 0.35881656408309937 </output>
							</split>
						</split>
						<split pos="right">
							<output> -0.11097390204668045 </output>
						</split>
					</split>
				</split>
				<split pos="right">
					<feature> 17 </feature>
					<threshold> 0.1953125 </threshold>
					<split pos="left">
						<feature> 15 </feature>
						<threshold> 0.01953125 </threshold>
						<split pos="left">
							<output> 1.0900081396102905 </output>
						</split>
						<split pos="right">
							<output> 0.8613801598548889 </output>
						</split>
					</split>
					<split pos="right">
						<output> 0.5008801221847534 </output>
					</split>
				</split>
			</split>
		</split>
	</tree>
	<tree id="12" weight="0.1">
		<split>
			<feature> 39 </feature>
			<threshold> 0.828125 </threshold>
			<split pos="left">
				<feature> 21 </feature>
				<threshold> 0.6640625 </threshold>
				<split pos="left">
					<output> -0.6926464438438416 </output>
				</split>
				<split pos="right">
					<feature> 29 </feature>
					<threshold> 0.76953125 </threshold>
					<split pos="left">
						<output> -0.04218680411577225 </output>
					</split>
					<split pos="right">
						<output> 0.5176204442977905 </output>
					</split>
				</split>
			</split>
			<split pos="right">
				<feature> 25 </feature>
				<threshold> 0.62890625 </threshold>
				<split pos="left">
					<feature> 24 </feature>
					<threshold> 0.8671875 </threshold>
					<split pos="left">
						<output> 0.047018952667713165 </output>
					</split>
					<split pos="right">
						<feature> 24 </feature>
						<threshold> 0.87890625 </threshold>
						<split pos="left">
							<output> 0.8180111646652222 </output>
						</split>
						<split pos="right">
							<feature> 37 </feature>
							<threshold> 0.70703125 </threshold>
							<split pos="left">
								<output> -0.9393438100814819 </output>
							</split>
							<split pos="right">
								<output> 0.46288588643074036 </output>
							</split>
						</split>
					</split>
				</split>
				<split pos="right">
					<feature> 17 </feature>
					<threshold> 0.203125 </threshold>
					<split pos="left">
						<feature> 15 </feature>
						<threshold> 0.01953125 </threshold>
						<split pos="left">
							<output> 1.0544902086257935 </output>
						</split>
						<split pos="right">
							<output> 0.8118219971656799 </output>
						</split>
					</split>
					<split pos="right">
						<output> 0.448833703994751 </output>
					</split>
				</split>
			</split>
		</split>
	</tree>
	<tree id="13" weight="0.1">
		<split>
			<feature> 39 </feature>
			<threshold> 0.8203125 </threshold>
			<split pos="left">
				<feature> 40 </feature>
				<threshold> 0.53515625 </threshold>
				<split pos="left">
					<output> -0.8850241303443909 </output>
				</split>
				<split pos="right">
					<feature> 29 </feature>
					<threshold> 0.7734375 </threshold>
					<split pos="left">
						<output> -0.12111212313175201 </output>
					</split>
					<split pos="right">
						<output> 0.45514312386512756 </output>
					</split>
				</split>
			</split>
			<split pos="right">
				<feature> 25 </feature>
				<threshold> 0.62890625 </threshold>
				<split pos="left">
					<feature> 24 </feature>
					<threshold> 0.87109375 </threshold>
					<split pos="left">
						<output> 0.06265243887901306 </output>
					</split>
					<split pos="right">
						<feature> 24 </feature>
						<threshold> 0.87890625 </threshold>
						<split pos="left">
							<output> 0.7653924226760864 </output>
						</split>
						<split pos="right">
							<feature> 37 </feature>
							<threshold> 0.70703125 </threshold>
							<split pos="left">
								<output> -1.0238385200500488 </output>
							</split>
							<split pos="right">
								<feature> 42 </feature>
								<threshold> 0.2265625 </threshold>
								<split pos="left">
									<output> 0.56312495470047 </output>
								</split>
								<split pos="right">
									<output> 0.21022804081439972 </output>
								</split>
							</split>
						</split>
					</split>
				</split>
				<split pos="right">
					<feature> 17 </feature>
					<threshold> 0.203125 </threshold>
					<split pos="left">
						<output> 0.7576400637626648 </output>
					</split>
					<split pos="right">
						<output> 0.4277808964252472 </output>
					</split>
				</split>
			</split>
		</split>
	</tree>
	<tree id="14" weight="0.1">
		<split>
			<feature> 40 </feature>
			<threshold> 0.7265625 </threshold>
			<split pos="left">
				<output> -0.49281707406044006 </output>
			</split>
			<split pos="right">
				<feature> 25 </feature>
				<threshold> 0.89453125 </threshold>
				<split pos="left">
					<feature> 39 </feature>
					<threshold> 0.8203125 </threshold>
					<split pos="left">
						<output> 0.053184397518634796 </output>
					</split>
					<split pos="right">
						<feature> 19 </feature>
						<threshold> 0.66796875 </threshold>
						<split pos="left">
							<feature> 5 </feature>
							<threshold> 0.93359375 </threshold>
							<split pos="left">
								<feature> 23 </feature>
								<threshold> 0.796875 </threshold>
								<split pos="left">
									<output> 0.8923792243003845 </output>
								</split>
								<split pos="right">
									<feature> 24 </feature>
									<threshold> 0.87109375 </threshold>
									<split pos="left">
										<output> 0.25292858481407166 </output>
									</split>
									<split pos="right">
										<feature> 24 </feature>
										<threshold> 0.87890625 </threshold>
										<split pos="left">
											<output> 0.8361707925796509 </output>
										</split>
										<split pos="right">
											<feature> 25 </feature>
											<threshold> 0.63671875 </threshold>
											<split pos="left">
												<output> 0.37257587909698486 </output>
											</split>
											<split pos="right">
												<output> 0.7527211904525757 </output>
											</split>
										</split>
									</split>
								</split>
							</split>
							<split pos="right">
								<output> -0.8679518103599548 </output>
							</split>
						</split>
						<split pos="right">
							<output> -0.48408186435699463 </output>
						</split>
					</split>
				</split>
				<split pos="right">
					<output> 0.6367858052253723 </output>
				</split>
			</split>
		</split>
	</tree>
	<tree id="15" weight="0.1">
		<split>
			<feature> 40 </feature>
			<threshold> 0.7265625 </threshold>
			<split pos="left">
				<output> -0.4663075804710388 </output>
			</split>
			<split pos="right">
				<feature> 27 </feature>
				<threshold> 0.7734375 </threshold>
				<split pos="left">
					<feature> 23 </feature>
					<threshold> 0.78515625 </threshold>
					<split pos="left">
						<output> -0.04512319713830948 </output>
					</split>
					<split pos="right">
						<feature> 31 </feature>
						<threshold> 0.77734375 </threshold>
						<split pos="left">
							<feature> 41 </feature>
							<threshold> 0.555556 </threshold>
							<split pos="left">
								<feature> 5 </feature>
								<threshold> 0.92578125 </threshold>
								<split pos="left">
									<feature> 5 </feature>
									<threshold> 0.921875 </threshold>
									<split pos="left">
										<feature> 17 </feature>
										<threshold> 0.04296875 </threshold>
										<split pos="left">
											<output> 0.6067965626716614 </output>
										</split>
										<split pos="right">
											<output> 0.22559329867362976 </output>
										</split>
									</split>
									<split pos="right">
										<output> 1.4191845655441284 </output>
									</split>
								</split>
								<split pos="right">
									<output> -0.7839868664741516 </output>
								</split>
							</split>
							<split pos="right">
								<output> -0.10920469462871552 </output>
							</split>
						</split>
						<split pos="right">
							<output> 0.5579825043678284 </output>
						</split>
					</split>
				</split>
				<split pos="right">
					<feature> 17 </feature>
					<threshold> 0.18359375 </threshold>
					<split pos="left">
						<output> 0.8619818687438965 </output>
					</split>
					<split pos="right">
						<output> 0.39014092087745667 </output>
					</split>
				</split>
			</split>
		</split>
	</tree>
	<tree id="16" weight="0.1">
		<split>
			<feature> 37 </feature>
			<threshold> 0.73046875 </threshold>
			<split pos="left">
				<feature> 39 </feature>
				<threshold> 0.546875 </threshold>
				<split pos="left">
					<output> -0.7703342437744141 </output>
				</split>
				<split pos="right">
					<feature> 25 </feature>
					<threshold> 0.6328125 </threshold>
					<split pos="left">
						<output> -0.07551359385251999 </output>
					</split>
					<split pos="right">
						<output> 0.5740326642990112 </output>
					</split>
				</split>
			</split>
			<split pos="right">
				<feature> 32 </feature>
				<threshold> 0.94140625 </threshold>
				<split pos="left">
					<feature> 41 </feature>
					<threshold> 0.555556 </threshold>
					<split pos="left">
						<feature> 23 </feature>
						<threshold> 0.88671875 </threshold>
						<split pos="left">
							<output> 0.18737459182739258 </output>
						</split>
						<split pos="right">
							<feature> 17 </feature>
							<threshold> 0.03515625 </threshold>
							<split pos="left">
								<feature> 41 </feature>
								<threshold> 0.444444 </threshold>
								<split pos="left">
									<output> 0.476820170879364 </output>
								</split>
								<split pos="right">
									<output> 1.052273154258728 </output>
								</split>
							</split>
							<split pos="right">
								<feature> 12 </feature>
								<threshold> 0.4375 </threshold>
								<split pos="left">
									<output> 0.09607083350419998 </output>
								</split>
								<split pos="right">
									<output> 0.6528832912445068 </output>
								</split>
							</split>
						</split>
					</split>
					<split pos="right">
						<output> -0.1747816801071167 </output>
					</split>
				</split>
				<split pos="right">
					<output> 0.5951218008995056 </output>
				</split>
			</split>
		</split>
	</tree>
	<tree id="17" weight="0.1">
		<split>
			<feature> 38 </feature>
			<threshold> 0.6953125 </threshold>
			<split pos="left">
				<output> -0.41759663820266724 </output>
			</split>
			<split pos="right">
				<feature> 25 </feature>
				<threshold> 0.90234375 </threshold>
				<split pos="left">
					<feature> 16 </feature>
					<threshold> 0.01171875 </threshold>
					<split pos="left">
						<output> -0.09016946703195572 </output>
					</split>
					<split pos="right">
						<feature> 1 </feature>
						<threshold> 0.953125 </threshold>
						<split pos="left">
							<feature> 31 </feature>
							<threshold> 0.984375 </threshold>
							<split pos="left">
								<feature> 17 </feature>
								<threshold> 0.07421875 </threshold>
								<split pos="left">
									<feature> 15 </feature>
									<threshold> 0.08984375 </threshold>
									<split pos="left">
										<output> -0.37808462977409363 </output>
									</split>
									<split pos="right">
										<feature> 11 </feature>
										<threshold> 0.09765625 </threshold>
										<split pos="left">
											<output> 1.2580970525741577 </output>
										</split>
										<split pos="right">
											<output> 0.5319943428039551 </output>
										</split>
									</split>
								</split>
								<split pos="right">
									<output> 0.1076555997133255 </output>
								</split>
							</split>
							<split pos="right">
								<output> 0.6278875470161438 </output>
							</split>
						</split>
						<split pos="right">
							<output> -0.7104648351669312 </output>
						</split>
					</split>
				</split>
				<split pos="right">
					<feature> 16 </feature>
					<threshold> 0.00390625 </threshold>
					<split pos="left">
						<output> -1.0565661191940308 </output>
					</split>
					<split pos="right">
						<output> 0.6496227979660034 </output>
					</split>
				</split>
			</split>
		</split>
	</tree>
	<tree id="18" weight="0.1">
		<split>
			<feature> 37 </feature>
			<threshold> 0.73046875 </threshold>
			<split pos="left">
				<feature> 39 </feature>
				<threshold> 0.515625 </threshold>
				<split pos="left">
					<output> -0.7404715418815613 </output>
				</split>
				<split pos="right">
					<output> -0.003958693705499172 </output>
				</split>
			</split>
			<split pos="right">
				<feature> 32 </feature>
				<threshold> 0.94140625 </threshold>
				<split pos="left">
					<feature> 19 </feature>
					<threshold> 0.40234375 </threshold>
					<split pos="left">
						<feature> 24 </feature>
						<threshold> 0.796875 </threshold>
						<split pos="left">
							<output> -0.04391762614250183 </output>
						</split>
						<split pos="right">
							<feature> 25 </feature>
							<threshold> 0.90234375 </threshold>
							<split pos="left">
								<feature> 18 </feature>
								<threshold> 0.80078125 </threshold>
								<split pos="left">
									<feature> 39 </feature>
									<threshold> 0.9453125 </threshold>
									<split pos="left">
										<output> 0.3203462064266205 </output>
									</split>
									<split pos="right">
										<feature> 45 </feature>
										<threshold> 0.0078125 </threshold>
										<split pos="left">
											<output> 0.6260402202606201 </output>
										</split>
										<split pos="right">
											<output> 0.17556342482566833 </output>
										</split>
									</split>
								</split>
								<split pos="right">
									<output> -1.1756021976470947 </output>
								</split>
							</split>
							<split pos="right">
								<output> 0.7727198004722595 </output>
							</split>
						</split>
					</split>
					<split pos="right">
						<output> -0.21841268241405487 </output>
					</split>
				</split>
				<split pos="right">
					<output> 0.5322532057762146 </output>
				</split>
			</split>
		</split>
	</tree>
	<tree id="19" weight="0.1">
		<split>
			<feature> 37 </feature>
			<threshold> 0.73046875 </threshold>
			<split pos="left">
				<feature> 39 </feature>
				<threshold> 0.4375 </threshold>
				<split pos="left">
					<output> -0.788093090057373 </output>
				</split>
				<split pos="right">
					<feature> 25 </feature>
					<threshold> 0.62109375 </threshold>
					<split pos="left">
						<feature> 38 </feature>
						<threshold> 0.93359375 </threshold>
						<split pos="left">
							<output> -0.07823275774717331 </output>
						</split>
						<split pos="right">
							<output> -1.9460766315460205 </output>
						</split>
					</split>
					<split pos="right">
						<output> 0.4669400751590729 </output>
					</split>
				</split>
			</split>
			<split pos="right">
				<feature> 42 </feature>
				<threshold> 0.25390625 </threshold>
				<split pos="left">
					<feature> 39 </feature>
					<threshold> 0.91796875 </threshold>
					<split pos="left">
						<feature> 20 </feature>
						<threshold> 0.00390625 </threshold>
						<split pos="left">
							<output> -0.4872179925441742 </output>
						</split>
						<split pos="right">
							<output> 0.43049052357673645 </output>
						</split>
					</split>
					<split pos="right">
						<feature> 17 </feature>
						<threshold> 0.04296875 </threshold>
						<split pos="left">
							<output> 0.7293151021003723 </output>
						</split>
						<split pos="right">
							<output> 0.2989934980869293 </output>
						</split>
					</split>
				</split>
				<split pos="right">
					<feature> 11 </feature>
					<threshold> 0.21484375 </threshold>
					<split pos="left">
						<output> 0.18962079286575317 </output>
					</split>
					<split pos="right">
						<output> -0.3225111961364746 </output>
					</split>
				</split>
			</split>
		</split>
	</tree>
	<tree id="20" weight="0.1">
		<split>
			<feature> 38 </feature>
			<threshold> 0.6953125 </threshold>
			<split pos="left">
				<output> -0.3343725800514221 </output>
			</split>
			<split pos="right">
				<feature> 25 </feature>
				<threshold> 0.90234375 </threshold>
				<split pos="left">
					<feature> 20 </feature>
					<threshold> 0.03515625 </threshold>
					<split pos="left">
						<feature> 37 </feature>
						<threshold> 0.97265625 </threshold>
						<split pos="left">
							<feature> 22 </feature>
							<threshold> 0.8515625 </threshold>
							<split pos="left">
								<output> -0.200370192527771 </output>
							</split>
							<split pos="right">
								<output> 0.37060651183128357 </output>
							</split>
						</split>
						<split pos="right">
							<output> -0.4134455621242523 </output>
						</split>
					</split>
					<split pos="right">
						<feature> 5 </feature>
						<threshold> 0.93359375 </threshold>
						<split pos="left">
							<feature> 39 </feature>
							<threshold> 0.6640625 </threshold>
							<split pos="left">
								<output> 1.9769260883331299 </output>
							</split>
							<split pos="right">
								<feature> 28 </feature>
								<threshold> 0.16796875 </threshold>
								<split pos="left">
									<feature> 21 </feature>
									<threshold> 0.91015625 </threshold>
									<split pos="left">
										<output> 0.04960327968001366 </output>
									</split>
									<split pos="right">
										<output> 0.3968859016895294 </output>
									</split>
								</split>
								<split pos="right">
									<output> 0.49415844678878784 </output>
								</split>
							</split>
						</split>
						<split pos="right">
							<output> -0.7367559671401978 </output>
						</split>
					</split>
				</split>
				<split pos="right">
					<output> 0.44885149598121643 </output>
				</split>
			</split>
		</split>
	</tree>
	<tree id="21" weight="0.1">
		<split>
			<feature> 40 </feature>
			<threshold> 0.53515625 </threshold>
			<split pos="left">
				<output> -0.6309095025062561 </output>
			</split>
			<split pos="right">
				<feature> 25 </feature>
				<threshold> 0.65234375 </threshold>
				<split pos="left">
					<feature> 19 </feature>
					<threshold> 0.39453125 </threshold>
					<split pos="left">
						<feature> 1 </feature>
						<threshold> 0.0703125 </threshold>
						<split pos="left">
							<output> -0.02262786217033863 </output>
						</split>
						<split pos="right">
							<feature> 37 </feature>
							<threshold> 0.76953125 </threshold>
							<split pos="left">
								<output> 0.10230623930692673 </output>
							</split>
							<split pos="right">
								<feature> 19 </feature>
								<threshold> 0.3828125 </threshold>
								<split pos="left">
									<feature> 46 </feature>
									<threshold> 0.12890625 </threshold>
									<split pos="left">
										<output> 0.5352162718772888 </output>
									</split>
									<split pos="right">
										<output> -0.21737785637378693 </output>
									</split>
								</split>
								<split pos="right">
									<output> 1.0031166076660156 </output>
								</split>
							</split>
						</split>
					</split>
					<split pos="right">
						<output> -0.18816342949867249 </output>
					</split>
				</split>
				<split pos="right">
					<feature> 16 </feature>
					<threshold> 0.00390625 </threshold>
					<split pos="left">
						<output> -0.978215217590332 </output>
					</split>
					<split pos="right">
						<feature> 42 </feature>
						<threshold> 0.23046875 </threshold>
						<split pos="left">
							<output> 0.6980475783348083 </output>
						</split>
						<split pos="right">
							<output> 0.2961529493331909 </output>
						</split>
					</split>
				</split>
			</split>
		</split>
	</tree>
	<tree id="22" weight="0.1">
		<split>
			<feature> 40 </feature>
			<threshold> 0.53515625 </threshold>
			<split pos="left">
				<output> -0.6044899225234985 </output>
			</split>
			<split pos="right">
				<feature> 25 </feature>
				<threshold> 0.42578125 </threshold>
				<split pos="left">
					<feature> 19 </feature>
					<threshold> 0.39453125 </threshold>
					<split pos="left">
						<feature> 5 </feature>
						<threshold> 0.0703125 </threshold>
						<split pos="left">
							<output> -0.09657848626375198 </output>
						</split>
						<split pos="right">
							<feature> 37 </feature>
							<threshold> 0.98046875 </threshold>
							<split pos="left">
								<feature> 37 </feature>
								<threshold> 0.9375 </threshold>
								<split pos="left">
									<feature> 37 </feature>
									<threshold> 0.93359375 </threshold>
									<split pos="left">
										<output> 0.25148749351501465 </output>
									</split>
									<split pos="right">
										<output> 1.0410511493682861 </output>
									</split>
								</split>
								<split pos="right">
									<output> -1.2609783411026 </output>
								</split>
							</split>
							<split pos="right">
								<output> 0.5527222752571106 </output>
							</split>
						</split>
					</split>
					<split pos="right">
						<output> -0.2477668970823288 </output>
					</split>
				</split>
				<split pos="right">
					<feature> 20 </feature>
					<threshold> 0.00390625 </threshold>
					<split pos="left">
						<output> -0.64873206615448 </output>
					</split>
					<split pos="right">
						<feature> 32 </feature>
						<threshold> 0.93359375 </threshold>
						<split pos="left">
							<output> 0.3140292465686798 </output>
						</split>
						<split pos="right">
							<output> 0.64075767993927 </output>
						</split>
					</split>
				</split>
			</split>
		</split>
	</tree>
	<tree id="23" weight="0.1">
		<split>
			<feature> 21 </feature>
			<threshold> 0.6640625 </threshold>
			<split pos="left">
				<output> -0.29712140560150146 </output>
			</split>
			<split pos="right">
				<feature> 42 </feature>
				<threshold> 0.03125 </threshold>
				<split pos="left">
					<output> 0.6625211238861084 </output>
				</split>
				<split pos="right">
					<feature> 37 </feature>
					<threshold> 0.63671875 </threshold>
					<split pos="left">
						<output> 1.0517687797546387 </output>
					</split>
					<split pos="right">
						<feature> 25 </feature>
						<threshold> 0.25 </threshold>
						<split pos="left">
							<feature> 38 </feature>
							<threshold> 0.9765625 </threshold>
							<split pos="left">
								<feature> 38 </feature>
								<threshold> 0.9296875 </threshold>
								<split pos="left">
									<output> -0.07674520462751389 </output>
								</split>
								<split pos="right">
									<output> 0.48699408769607544 </output>
								</split>
							</split>
							<split pos="right">
								<output> -0.3993074297904968 </output>
							</split>
						</split>
						<split pos="right">
							<feature> 20 </feature>
							<threshold> 0.00390625 </threshold>
							<split pos="left">
								<output> -0.7558602690696716 </output>
							</split>
							<split pos="right">
								<feature> 15 </feature>
								<threshold> 0.00390625 </threshold>
								<split pos="left">
									<output> 1.7985605001449585 </output>
								</split>
								<split pos="right">
									<feature> 15 </feature>
									<threshold> 0.01953125 </threshold>
									<split pos="left">
										<output> 0.9002742767333984 </output>
									</split>
									<split pos="right">
										<output> 0.2704581916332245 </output>
									</split>
								</split>
							</split>
						</split>
					</split>
				</split>
			</split>
		</split>
	</tree>
	<tree id="24" weight="0.1">
		<split>
			<feature> 21 </feature>
			<threshold> 0.6640625 </threshold>
			<split pos="left">
				<feature> 44 </feature>
				<threshold> 0.0234375 </threshold>
				<split pos="left">
					<output> -0.4824862480163574 </output>
				</split>
				<split pos="right">
					<output> 0.11515003442764282 </output>
				</split>
			</split>
			<split pos="right">
				<feature> 42 </feature>
				<threshold> 0.03125 </threshold>
				<split pos="left">
					<output> 0.6299355030059814 </output>
				</split>
				<split pos="right">
					<feature> 37 </feature>
					<threshold> 0.63671875 </threshold>
					<split pos="left">
						<output> 0.9758877158164978 </output>
					</split>
					<split pos="right">
						<feature> 42 </feature>
						<threshold> 0.2578125 </threshold>
						<split pos="left">
							<feature> 1 </feature>
							<threshold> 0.0703125 </threshold>
							<split pos="left">
								<output> 0.07055404037237167 </output>
							</split>
							<split pos="right">
								<feature> 29 </feature>
								<threshold> 0.66015625 </threshold>
								<split pos="left">
									<feature> 24 </feature>
									<threshold> 0.80859375 </threshold>
									<split pos="left">
										<output> -0.21122987568378448 </output>
									</split>
									<split pos="right">
										<output> 0.37350746989250183 </output>
									</split>
								</split>
								<split pos="right">
									<output> 0.7403783202171326 </output>
								</split>
							</split>
						</split>
						<split pos="right">
							<feature> 11 </feature>
							<threshold> 0.21484375 </threshold>
							<split pos="left">
								<output> 0.12742900848388672 </output>
							</split>
							<split pos="right">
								<output> -0.3664342164993286 </output>
							</split>
						</split>
					</split>
				</split>
			</split>
		</split>
	</tree>
	<tree id="25" weight="0.1">
		<split>
			<feature> 39 </feature>
			<threshold> 0.4375 </threshold>
			<split pos="left">
				<output> -0.6416443586349487 </output>
			</split>
			<split pos="right">
				<feature> 19 </feature>
				<threshold> 0.23828125 </threshold>
				<split pos="left">
					<feature> 28 </feature>
					<threshold> 0.91015625 </threshold>
					<split pos="left">
						<feature> 23 </feature>
						<threshold> 0.33203125 </threshold>
						<split pos="left">
							<output> 1.170703649520874 </output>
						</split>
						<split pos="right">
							<feature> 1 </feature>
							<threshold> 0.0625 </threshold>
							<split pos="left">
								<output> -0.0045987567864358425 </output>
							</split>
							<split pos="right">
								<feature> 25 </feature>
								<threshold> 0.9921875 </threshold>
								<split pos="left">
									<feature> 18 </feature>
									<threshold> 0.47265625 </threshold>
									<split pos="left">
										<feature> 22 </feature>
										<threshold> 0.87109375 </threshold>
										<split pos="left">
											<output> 0.3379364013671875 </output>
										</split>
										<split pos="right">
											<output> 0.45804890990257263 </output>
										</split>
									</split>
									<split pos="right">
										<output> -0.16156646609306335 </output>
									</split>
								</split>
								<split pos="right">
									<output> 1.0609701871871948 </output>
								</split>
							</split>
						</split>
					</split>
					<split pos="right">
						<output> 0.5667544007301331 </output>
					</split>
				</split>
				<split pos="right">
					<feature> 25 </feature>
					<threshold> 0.25 </threshold>
					<split pos="left">
						<output> -0.2005367875099182 </output>
					</split>
					<split pos="right">
						<output> 0.16325078904628754 </output>
					</split>
				</split>
			</split>
		</split>
	</tree>
	<tree id="26" weight="0.1">
		<split>
			<feature> 39 </feature>
			<threshold> 0.4375 </threshold>
			<split pos="left">
				<output> -0.6046110987663269 </output>
			</split>
			<split pos="right">
				<feature> 19 </feature>
				<threshold> 0.23828125 </threshold>
				<split pos="left">
					<feature> 28 </feature>
					<threshold> 0.91015625 </threshold>
					<split pos="left">
						<feature> 23 </feature>
						<threshold> 0.33203125 </threshold>
						<split pos="left">
							<output> 1.1017346382141113 </output>
						</split>
						<split pos="right">
							<feature> 27 </feature>
							<threshold> 0.99609375 </threshold>
							<split pos="left">
								<feature> 33 </feature>
								<threshold> 0.97265625 </threshold>
								<split pos="left">
									<feature> 5 </feature>
									<threshold> 0.02734375 </threshold>
									<split pos="left">
										<output> -0.09902164340019226 </output>
									</split>
									<split pos="right">
										<feature> 5 </feature>
										<threshold> 0.03125 </threshold>
										<split pos="left">
											<output> 0.8262829780578613 </output>
										</split>
										<split pos="right">
											<output> 0.19243094325065613 </output>
										</split>
									</split>
								</split>
								<split pos="right">
									<output> 0.693160891532898 </output>
								</split>
							</split>
							<split pos="right">
								<output> -0.7870644927024841 </output>
							</split>
						</split>
					</split>
					<split pos="right">
						<output> 0.5337873697280884 </output>
					</split>
				</split>
				<split pos="right">
					<feature> 25 </feature>
					<threshold> 0.25 </threshold>
					<split pos="left">
						<output> -0.196892648935318 </output>
					</split>
					<split pos="right">
						<output> 0.14880864322185516 </output>
					</split>
				</split>
			</split>
		</split>
	</tree>
	<tree id="27" weight="0.1">
		<split>
			<feature> 40 </feature>
			<threshold> 0.53515625 </threshold>
			<split pos="left">
				<output> -0.5095579624176025 </output>
			</split>
			<split pos="right">
				<feature> 25 </feature>
				<threshold> 0.65234375 </threshold>
				<split pos="left">
					<feature> 12 </feature>
					<threshold> 0.640625 </threshold>
					<split pos="left">
						<feature> 1 </feature>
						<threshold> 0.02734375 </threshold>
						<split pos="left">
							<output> -0.2511502504348755 </output>
						</split>
						<split pos="right">
							<feature> 16 </feature>
							<threshold> 0.0 </threshold>
							<split pos="left">
								<output> 2.1792757511138916 </output>
							</split>
							<split pos="right">
								<feature> 19 </feature>
								<threshold> 0.19140625 </threshold>
								<split pos="left">
									<feature> 42 </feature>
									<threshold> 0.15625 </threshold>
									<split pos="left">
										<output> 0.04422353208065033 </output>
									</split>
									<split pos="right">
										<output> 0.49388986825942993 </output>
									</split>
								</split>
								<split pos="right">
									<feature> 32 </feature>
									<threshold> 0.0234375 </threshold>
									<split pos="left">
										<output> -0.15275761485099792 </output>
									</split>
									<split pos="right">
										<output> 0.23148591816425323 </output>
									</split>
								</split>
							</split>
						</split>
					</split>
					<split pos="right">
						<output> 0.43948790431022644 </output>
					</split>
				</split>
				<split pos="right">
					<feature> 42 </feature>
					<threshold> 0.03125 </threshold>
					<split pos="left">
						<output> 0.853187084197998 </output>
					</split>
					<split pos="right">
						<output> 0.18613199889659882 </output>
					</split>
				</split>
			</split>
		</split>
	</tree>
	<tree id="28" weight="0.1">
		<split>
			<feature> 39 </feature>
			<threshold> 0.58984375 </threshold>
			<split pos="left">
				<output> -0.3607533276081085 </output>
			</split>
			<split pos="right">
				<feature> 19 </feature>
				<threshold> 0.23828125 </threshold>
				<split pos="left">
					<feature> 28 </feature>
					<threshold> 0.91015625 </threshold>
					<split pos="left">
						<feature> 46 </feature>
						<threshold> 0.328125 </threshold>
						<split pos="left">
							<feature> 17 </feature>
							<threshold> 0.04296875 </threshold>
							<split pos="left">
								<output> 0.4732699990272522 </output>
							</split>
							<split pos="right">
								<feature> 21 </feature>
								<threshold> 0.30859375 </threshold>
								<split pos="left">
									<output> 1.629488229751587 </output>
								</split>
								<split pos="right">
									<output> 0.08575896918773651 </output>
								</split>
							</split>
						</split>
						<split pos="right">
							<output> -0.29966869950294495 </output>
						</split>
					</split>
					<split pos="right">
						<output> 0.5341218113899231 </output>
					</split>
				</split>
				<split pos="right">
					<feature> 21 </feature>
					<threshold> 0.984375 </threshold>
					<split pos="left">
						<feature> 21 </feature>
						<threshold> 0.98046875 </threshold>
						<split pos="left">
							<feature> 3 </feature>
							<threshold> 0.5 </threshold>
							<split pos="left">
								<output> -0.11293475329875946 </output>
							</split>
							<split pos="right">
								<output> 0.3590053617954254 </output>
							</split>
						</split>
						<split pos="right">
							<output> 0.7179990410804749 </output>
						</split>
					</split>
					<split pos="right">
						<output> -0.425283819437027 </output>
					</split>
				</split>
			</split>
		</split>
	</tree>
	<tree id="29" weight="0.1">
		<split>
			<feature> 39 </feature>
			<threshold> 0.4296875 </threshold>
			<split pos="left">
				<output> -0.5640790462493896 </output>
			</split>
			<split pos="right">
				<feature> 19 </feature>
				<threshold> 0.23828125 </threshold>
				<split pos="left">
					<feature> 28 </feature>
					<threshold> 0.91015625 </threshold>
					<split pos="left">
						<feature> 23 </feature>
						<threshold> 0.33203125 </threshold>
						<split pos="left">
							<output> 1.087199330329895 </output>
						</split>
						<split pos="right">
							<feature> 16 </feature>
							<threshold> 0.02734375 </threshold>
							<split pos="left">
								<output> -0.04654545336961746 </output>
							</split>
							<split pos="right">
								<feature> 23 </feature>
								<threshold> 0.421875 </threshold>
								<split pos="left">
									<output> 4.2531867027282715 </output>
								</split>
								<split pos="right">
									<feature> 40 </feature>
									<threshold> 0.9453125 </threshold>
									<split pos="left">
										<output> 0.3398773670196533 </output>
									</split>
									<split pos="right">
										<output> -0.3307648301124573 </output>
									</split>
								</split>
							</split>
						</split>
					</split>
					<split pos="right">
						<output> 0.5033364295959473 </output>
					</split>
				</split>
				<split pos="right">
					<feature> 20 </feature>
					<threshold> 0.0078125 </threshold>
					<split pos="left">
						<output> -0.5264198184013367 </output>
					</split>
					<split pos="right">
						<feature> 3 </feature>
						<threshold> 0.75 </threshold>
						<split pos="left">
							<output> -0.06526287645101547 </output>
						</split>
						<split pos="right">
							<output> 0.48350781202316284 </output>
						</split>
					</split>
				</split>
			</split>
		</split>
	</tree>
	<tree id="30" weight="0.1">
		<split>
			<feature> 12 </feature>
			<threshold> 0.453125 </threshold>
			<split pos="left">
				<feature> 5 </feature>
				<threshold> 0.0234375 </threshold>
				<split pos="left">
					<output> -0.3727203607559204 </output>
				</split>
				<split pos="right">
					<feature> 26 </feature>
					<threshold> 0.6015625 </threshold>
					<split pos="left">
						<feature> 38 </feature>
						<threshold> 0.9765625 </threshold>
						<split pos="left">
							<feature> 38 </feature>
							<threshold> 0.8984375 </threshold>
							<split pos="left">
								<feature> 24 </feature>
								<threshold> 0.89453125 </threshold>
								<split pos="left">
									<feature> 40 </feature>
									<threshold> 0.90625 </threshold>
									<split pos="left">
										<feature> 24 </feature>
										<threshold> 0.87109375 </threshold>
										<split pos="left">
											<output> -0.03616199269890785 </output>
										</split>
										<split pos="right">
											<output> 0.48933619260787964 </output>
										</split>
									</split>
									<split pos="right">
										<output> 1.1060411930084229 </output>
									</split>
								</split>
								<split pos="right">
									<output> -1.0012476444244385 </output>
								</split>
							</split>
							<split pos="right">
								<output> 0.35139161348342896 </output>
							</split>
						</split>
						<split pos="right">
							<output> -0.2718384861946106 </output>
						</split>
					</split>
					<split pos="right">
						<output> 0.3747214376926422 </output>
					</split>
				</split>
			</split>
			<split pos="right">
				<feature> 42 </feature>
				<threshold> 0.015625 </threshold>
				<split pos="left">
					<output> 0.9248844981193542 </output>
				</split>
				<split pos="right">
					<output> 0.1352335512638092 </output>
				</split>
			</split>
		</split>
	</tree>
	<tree id="31" weight="0.1">
		<split>
			<feature> 21 </feature>
			<threshold> 0.64453125 </threshold>
			<split pos="left">
				<output> -0.22877280414104462 </output>
			</split>
			<split pos="right">
				<feature> 42 </feature>
				<threshold> 0.03125 </threshold>
				<split pos="left">
					<output> 0.5421590209007263 </output>
				</split>
				<split pos="right">
					<feature> 37 </feature>
					<threshold> 0.640625 </threshold>
					<split pos="left">
						<output> 0.8757832050323486 </output>
					</split>
					<split pos="right">
						<feature> 37 </feature>
						<threshold> 0.99609375 </threshold>
						<split pos="left">
							<feature> 13 </feature>
							<threshold> 0.91015625 </threshold>
							<split pos="left">
								<feature> 13 </feature>
								<threshold> 0.828125 </threshold>
								<split pos="left">
									<feature> 19 </feature>
									<threshold> 0.0 </threshold>
									<split pos="left">
										<output> -0.8500950932502747 </output>
									</split>
									<split pos="right">
										<feature> 19 </feature>
										<threshold> 0.04296875 </threshold>
										<split pos="left">
											<output> 1.1918151378631592 </output>
										</split>
										<split pos="right">
											<feature> 13 </feature>
											<threshold> 0.7890625 </threshold>
											<split pos="left">
												<output> 0.05719050392508507 </output>
											</split>
											<split pos="right">
												<output> 0.8816601634025574 </output>
											</split>
										</split>
									</split>
								</split>
								<split pos="right">
									<output> -0.9242024421691895 </output>
								</split>
							</split>
							<split pos="right">
								<output> 0.32319608330726624 </output>
							</split>
						</split>
						<split pos="right">
							<output> -0.30761608481407166 </output>
						</split>
					</split>
				</split>
			</split>
		</split>
	</tree>
	<tree id="32" weight="0.1">
		<split>
			<feature> 40 </feature>
			<threshold> 0.53515625 </threshold>
			<split pos="left">
				<output> -0.43345901370048523 </output>
			</split>
			<split pos="right">
				<feature> 42 </feature>
				<threshold> 0.03125 </threshold>
				<split pos="left">
					<output> 0.40874767303466797 </output>
				</split>
				<split pos="right">
					<feature> 21 </feature>
					<threshold> 0.984375 </threshold>
					<split pos="left">
						<feature> 25 </feature>
						<threshold> 0.42578125 </threshold>
						<split pos="left">
							<feature> 21 </feature>
							<threshold> 0.98046875 </threshold>
							<split pos="left">
								<feature> 38 </feature>
								<threshold> 0.9765625 </threshold>
								<split pos="left">
									<feature> 22 </feature>
									<threshold> 0.9296875 </threshold>
									<split pos="left">
										<feature> 40 </feature>
										<threshold> 0.91796875 </threshold>
										<split pos="left">
											<feature> 34 </feature>
											<threshold> 0.015625 </threshold>
											<split pos="left">
												<output> 0.10749516636133194 </output>
											</split>
											<split pos="right">
												<output> -0.4472281336784363 </output>
											</split>
										</split>
										<split pos="right">
											<output> -0.8372860550880432 </output>
										</split>
									</split>
									<split pos="right">
										<output> 0.42661958932876587 </output>
									</split>
								</split>
								<split pos="right">
									<output> -0.5001038908958435 </output>
								</split>
							</split>
							<split pos="right">
								<output> 0.5329573154449463 </output>
							</split>
						</split>
						<split pos="right">
							<output> 0.2616008222103119 </output>
						</split>
					</split>
					<split pos="right">
						<output> -0.2350316345691681 </output>
					</split>
				</split>
			</split>
		</split>
	</tree>
	<tree id="33" weight="0.1">
		<split>
			<feature> 21 </feature>
			<threshold> 0.6640625 </threshold>
			<split pos="left">
				<feature> 44 </feature>
				<threshold> 0.01953125 </threshold>
				<split pos="left">
					<output> -0.3915550112724304 </output>
				</split>
				<split pos="right">
					<output> 0.14001235365867615 </output>
				</split>
			</split>
			<split pos="right">
				<feature> 37 </feature>
				<threshold> 0.6328125 </threshold>
				<split pos="left">
					<output> 0.9271238446235657 </output>
				</split>
				<split pos="right">
					<feature> 42 </feature>
					<threshold> 0.03125 </threshold>
					<split pos="left">
						<output> 0.475940078496933 </output>
					</split>
					<split pos="right">
						<feature> 19 </feature>
						<threshold> 0.5234375 </threshold>
						<split pos="left">
							<feature> 36 </feature>
							<threshold> 0.0390625 </threshold>
							<split pos="left">
								<feature> 25 </feature>
								<threshold> 0.2734375 </threshold>
								<split pos="left">
									<feature> 16 </feature>
									<threshold> 0.10546875 </threshold>
									<split pos="left">
										<feature> 1 </feature>
										<threshold> 0.12109375 </threshold>
										<split pos="left">
											<output> 0.04601667821407318 </output>
										</split>
										<split pos="right">
											<output> -0.7357785701751709 </output>
										</split>
									</split>
									<split pos="right">
										<output> 0.33474910259246826 </output>
									</split>
								</split>
								<split pos="right">
									<output> 0.3369254767894745 </output>
								</split>
							</split>
							<split pos="right">
								<output> -0.23868462443351746 </output>
							</split>
						</split>
						<split pos="right">
							<output> -0.30257338285446167 </output>
						</split>
					</split>
				</split>
			</split>
		</split>
	</tree>
	<tree id="34" weight="0.1">
		<split>
			<feature> 16 </feature>
			<threshold> 0.00390625 </threshold>
			<split pos="left">
				<output> -0.44917356967926025 </output>
			</split>
			<split pos="right">
				<feature> 25 </feature>
				<threshold> 0.66796875 </threshold>
				<split pos="left">
					<feature> 25 </feature>
					<threshold> 0.66015625 </threshold>
					<split pos="left">
						<feature> 24 </feature>
						<threshold> 0.9609375 </threshold>
						<split pos="left">
							<feature> 21 </feature>
							<threshold> 0.984375 </threshold>
							<split pos="left">
								<feature> 21 </feature>
								<threshold> 0.98046875 </threshold>
								<split pos="left">
									<feature> 38 </feature>
									<threshold> 0.96484375 </threshold>
									<split pos="left">
										<feature> 38 </feature>
										<threshold> 0.9453125 </threshold>
										<split pos="left">
											<feature> 25 </feature>
											<threshold> 0.65625 </threshold>
											<split pos="left">
												<output> -0.012351659126579762 </output>
											</split>
											<split pos="right">
												<output> 1.15081787109375 </output>
											</split>
										</split>
										<split pos="right">
											<output> 0.6420394778251648 </output>
										</split>
									</split>
									<split pos="right">
										<output> -1.3325531482696533 </output>
									</split>
								</split>
								<split pos="right">
									<output> 0.7353614568710327 </output>
								</split>
							</split>
							<split pos="right">
								<output> -0.7059575915336609 </output>
							</split>
						</split>
						<split pos="right">
							<output> 0.2060081958770752 </output>
						</split>
					</split>
					<split pos="right">
						<output> -3.954357624053955 </output>
					</split>
				</split>
				<split pos="right">
					<output> 0.2761589288711548 </output>
				</split>
			</split>
		</split>
	</tree>
	<tree id="35" weight="0.1">
		<split>
			<feature> 19 </feature>
			<threshold> 0.90625 </threshold>
			<split pos="left">
				<feature> 39 </feature>
				<threshold> 0.42578125 </threshold>
				<split pos="left">
					<output> -0.4450392425060272 </output>
				</split>
				<split pos="right">
					<feature> 42 </feature>
					<threshold> 0.91796875 </threshold>
					<split pos="left">
						<feature> 25 </feature>
						<threshold> 0.65234375 </threshold>
						<split pos="left">
							<feature> 23 </feature>
							<threshold> 0.33203125 </threshold>
							<split pos="left">
								<output> 1.3119200468063354 </output>
							</split>
							<split pos="right">
								<feature> 20 </feature>
								<threshold> 0.015625 </threshold>
								<split pos="left">
									<output> -0.1668628752231598 </output>
								</split>
								<split pos="right">
									<feature> 23 </feature>
									<threshold> 0.41796875 </threshold>
									<split pos="left">
										<output> 3.62654972076416 </output>
									</split>
									<split pos="right">
										<feature> 22 </feature>
										<threshold> 0.890625 </threshold>
										<split pos="left">
											<feature> 40 </feature>
											<threshold> 0.91796875 </threshold>
											<split pos="left">
												<output> 0.12122935801744461 </output>
											</split>
											<split pos="right">
												<output> -1.7208274602890015 </output>
											</split>
										</split>
										<split pos="right">
											<output> 0.23134678602218628 </output>
										</split>
									</split>
								</split>
							</split>
						</split>
						<split pos="right">
							<output> 0.2301531285047531 </output>
						</split>
					</split>
					<split pos="right">
						<output> -0.7539977431297302 </output>
					</split>
				</split>
			</split>
			<split pos="right">
				<output> -0.6593914031982422 </output>
			</split>
		</split>
	</tree>
	<tree id="36" weight="0.1">
		<split>
			<feature> 20 </feature>
			<threshold> 0.0078125 </threshold>
			<split pos="left">
				<output> -0.27429014444351196 </output>
			</split>
			<split pos="right">
				<feature> 29 </feature>
				<threshold> 0.48046875 </threshold>
				<split pos="left">
					<feature> 36 </feature>
					<threshold> 0.90625 </threshold>
					<split pos="left">
						<feature> 24 </feature>
						<threshold> 0.97265625 </threshold>
						<split pos="left">
							<feature> 40 </feature>
							<threshold> 0.97265625 </threshold>
							<split pos="left">
								<feature> 21 </feature>
								<threshold> 0.98828125 </threshold>
								<split pos="left">
									<feature> 40 </feature>
									<threshold> 0.96875 </threshold>
									<split pos="left">
										<feature> 37 </feature>
										<threshold> 0.98046875 </threshold>
										<split pos="left">
											<feature> 1 </feature>
											<threshold> 0.1796875 </threshold>
											<split pos="left">
												<output> -0.22073999047279358 </output>
											</split>
											<split pos="right">
												<output> 0.16405920684337616 </output>
											</split>
										</split>
										<split pos="right">
											<output> 0.754430890083313 </output>
										</split>
									</split>
									<split pos="right">
										<output> 0.8125871419906616 </output>
									</split>
								</split>
								<split pos="right">
									<output> -0.9773085117340088 </output>
								</split>
							</split>
							<split pos="right">
								<output> -2.1291253566741943 </output>
							</split>
						</split>
						<split pos="right">
							<output> 0.3043539822101593 </output>
						</split>
					</split>
					<split pos="right">
						<output> 0.6409831643104553 </output>
					</split>
				</split>
				<split pos="right">
					<output> 0.24511462450027466 </output>
				</split>
			</split>
		</split>
	</tree>
	<tree id="37" weight="0.1">
		<split>
			<feature> 19 </feature>
			<threshold> 0.90625 </threshold>
			<split pos="left">
				<feature> 38 </feature>
				<threshold> 0.51171875 </threshold>
				<split pos="left">
					<output> -0.3170786499977112 </output>
				</split>
				<split pos="right">
					<feature> 36 </feature>
					<threshold> 0.0390625 </threshold>
					<split pos="left">
						<feature> 29 </feature>
						<threshold> 0.7578125 </threshold>
						<split pos="left">
							<feature> 30 </feature>
							<threshold> 0.86328125 </threshold>
							<split pos="left">
								<feature> 19 </feature>
								<threshold> 0.0390625 </threshold>
								<split pos="left">
									<output> -0.29840484261512756 </output>
								</split>
								<split pos="right">
									<feature> 19 </feature>
									<threshold> 0.04296875 </threshold>
									<split pos="left">
										<output> 1.2294025421142578 </output>
									</split>
									<split pos="right">
										<feature> 19 </feature>
										<threshold> 0.39453125 </threshold>
										<split pos="left">
											<feature> 38 </feature>
											<threshold> 0.8203125 </threshold>
											<split pos="left">
												<output> 0.10640103369951248 </output>
											</split>
											<split pos="right">
												<output> 0.31142058968544006 </output>
											</split>
										</split>
										<split pos="right">
											<output> -0.12492766976356506 </output>
										</split>
									</split>
								</split>
							</split>
							<split pos="right">
								<output> -0.648071825504303 </output>
							</split>
						</split>
						<split pos="right">
							<output> 0.283854603767395 </output>
						</split>
					</split>
					<split pos="right">
						<output> -0.1450752466917038 </output>
					</split>
				</split>
			</split>
			<split pos="right">
				<output> -0.6091813445091248 </output>
			</split>
		</split>
	</tree>
	<tree id="38" weight="0.1">
		<split>
			<feature> 19 </feature>
			<threshold> 0.90625 </threshold>
			<split pos="left">
				<feature> 39 </feature>
				<threshold> 0.32421875 </threshold>
				<split pos="left">
					<output> -0.515067458152771 </output>
				</split>
				<split pos="right">
					<feature> 12 </feature>
					<threshold> 0.453125 </threshold>
					<split pos="left">
						<feature> 46 </feature>
						<threshold> 0.09375 </threshold>
						<split pos="left">
							<feature> 21 </feature>
							<threshold> 0.86328125 </threshold>
							<split pos="left">
								<feature> 39 </feature>
								<threshold> 0.90234375 </threshold>
								<split pos="left">
									<feature> 37 </feature>
									<threshold> 0.86328125 </threshold>
									<split pos="left">
										<feature> 24 </feature>
										<threshold> 0.8359375 </threshold>
										<split pos="left">
											<output> 0.05743328854441643 </output>
										</split>
										<split pos="right">
											<output> 0.6563379764556885 </output>
										</split>
									</split>
									<split pos="right">
										<output> -1.4848099946975708 </output>
									</split>
								</split>
								<split pos="right">
									<output> -0.3794008195400238 </output>
								</split>
							</split>
							<split pos="right">
								<output> 0.31619521975517273 </output>
							</split>
						</split>
						<split pos="right">
							<output> -0.15579426288604736 </output>
						</split>
					</split>
					<split pos="right">
						<feature> 5 </feature>
						<threshold> 0.0390625 </threshold>
						<split pos="left">
							<output> 0.5629683136940002 </output>
						</split>
						<split pos="right">
							<output> -0.016230829060077667 </output>
						</split>
					</split>
				</split>
			</split>
			<split pos="right">
				<output> -0.5620915293693542 </output>
			</split>
		</split>
	</tree>
	<tree id="39" weight="0.1">
		<split>
			<feature> 21 </feature>
			<threshold> 0.96484375 </threshold>
			<split pos="left">
				<feature> 21 </feature>
				<threshold> 0.9609375 </threshold>
				<split pos="left">
					<feature> 21 </feature>
					<threshold> 0.8671875 </threshold>
					<split pos="left">
						<feature> 38 </feature>
						<threshold> 0.96484375 </threshold>
						<split pos="left">
							<feature> 38 </feature>
							<threshold> 0.92578125 </threshold>
							<split pos="left">
								<feature> 22 </feature>
								<threshold> 0.9765625 </threshold>
								<split pos="left">
									<feature> 44 </feature>
									<threshold> 0.03125 </threshold>
									<split pos="left">
										<feature> 37 </feature>
										<threshold> 0.9296875 </threshold>
										<split pos="left">
											<feature> 39 </feature>
											<threshold> 0.90234375 </threshold>
											<split pos="left">
												<output> -0.15459489822387695 </output>
											</split>
											<split pos="right">
												<output> -0.2878923714160919 </output>
											</split>
										</split>
										<split pos="right">
											<output> 0.8776476383209229 </output>
										</split>
									</split>
									<split pos="right">
										<output> 0.251006156206131 </output>
									</split>
								</split>
								<split pos="right">
									<output> 3.5555107593536377 </output>
								</split>
							</split>
							<split pos="right">
								<output> 0.5437124967575073 </output>
							</split>
						</split>
						<split pos="right">
							<output> -0.8041485548019409 </output>
						</split>
					</split>
					<split pos="right">
						<output> 0.21473565697669983 </output>
					</split>
				</split>
				<split pos="right">
					<output> 0.911684513092041 </output>
				</split>
			</split>
			<split pos="right">
				<output> -0.18879233300685883 </output>
			</split>
		</split>
	</tree>
	<tree id="40" weight="0.1">
		<split>
			<feature> 20 </feature>
			<threshold> 0.0078125 </threshold>
			<split pos="left">
				<output> -0.2554614841938019 </output>
			</split>
			<split pos="right">
				<feature> 29 </feature>
				<threshold> 0.48046875 </threshold>
				<split pos="left">
					<feature> 36 </feature>
					<threshold> 0.90625 </threshold>
					<split pos="left">
						<feature> 24 </feature>
						<threshold> 0.96484375 </threshold>
						<split pos="left">
							<feature> 40 </feature>
							<threshold> 0.95703125 </threshold>
							<split pos="left">
								<feature> 16 </feature>
								<threshold> 0.1015625 </threshold>
								<split pos="left">
									<feature> 23 </feature>
									<threshold> 0.94140625 </threshold>
									<split pos="left">
										<feature> 39 </feature>
										<threshold> 0.9453125 </threshold>
										<split pos="left">
											<output> -0.16441775858402252 </output>
										</split>
										<split pos="right">
											<output> 0.9738779664039612 </output>
										</split>
									</split>
									<split pos="right">
										<output> -0.6149996519088745 </output>
									</split>
								</split>
								<split pos="right">
									<output> 0.12056728452444077 </output>
								</split>
							</split>
							<split pos="right">
								<output> -1.5995265245437622 </output>
							</split>
						</split>
						<split pos="right">
							<output> 0.26371821761131287 </output>
						</split>
					</split>
					<split pos="right">
						<output> 0.6012418270111084 </output>
					</split>
				</split>
				<split pos="right">
					<feature> 40 </feature>
					<threshold> 0.83984375 </threshold>
					<split pos="left">
						<output> 0.5179898738861084 </output>
					</split>
					<split pos="right">
						<output> -0.10665218532085419 </output>
					</split>
				</split>
			</split>
		</split>
	</tree>
	<tree id="41" weight="0.1">
		<split>
			<feature> 20 </feature>
			<threshold> 0.00390625 </threshold>
			<split pos="left">
				<output> -0.3803357481956482 </output>
			</split>
			<split pos="right">
				<feature> 29 </feature>
				<threshold> 0.48046875 </threshold>
				<split pos="left">
					<feature> 13 </feature>
					<threshold> 0.421875 </threshold>
					<split pos="left">
						<feature> 38 </feature>
						<threshold> 0.8203125 </threshold>
						<split pos="left">
							<output> -0.08205492049455643 </output>
						</split>
						<split pos="right">
							<feature> 32 </feature>
							<threshold> 0.4453125 </threshold>
							<split pos="left">
								<feature> 1 </feature>
								<threshold> 0.5859375 </threshold>
								<split pos="left">
									<output> 0.21735675632953644 </output>
								</split>
								<split pos="right">
									<output> -0.6634055972099304 </output>
								</split>
							</split>
							<split pos="right">
								<output> 2.5102648735046387 </output>
							</split>
						</split>
					</split>
					<split pos="right">
						<output> -0.560894250869751 </output>
					</split>
				</split>
				<split pos="right">
					<feature> 11 </feature>
					<threshold> 0.01171875 </threshold>
					<split pos="left">
						<output> 0.9620295763015747 </output>
					</split>
					<split pos="right">
						<feature> 29 </feature>
						<threshold> 0.484375 </threshold>
						<split pos="left">
							<output> 1.2121177911758423 </output>
						</split>
						<split pos="right">
							<feature> 46 </feature>
							<threshold> 0.73828125 </threshold>
							<split pos="left">
								<output> 0.21293748915195465 </output>
							</split>
							<split pos="right">
								<output> -0.7425862550735474 </output>
							</split>
						</split>
					</split>
				</split>
			</split>
		</split>
	</tree>
	<tree id="42" weight="0.1">
		<split>
			<feature> 19 </feature>
			<threshold> 0.23828125 </threshold>
			<split pos="left">
				<feature> 28 </feature>
				<threshold> 0.9140625 </threshold>
				<split pos="left">
					<feature> 20 </feature>
					<threshold> 0.015625 </threshold>
					<split pos="left">
						<output> -0.19762803614139557 </output>
					</split>
					<split pos="right">
						<feature> 40 </feature>
						<threshold> 0.99609375 </threshold>
						<split pos="left">
							<feature> 24 </feature>
							<threshold> 0.98046875 </threshold>
							<split pos="left">
								<feature> 33 </feature>
								<threshold> 0.97265625 </threshold>
								<split pos="left">
									<feature> 24 </feature>
									<threshold> 0.96875 </threshold>
									<split pos="left">
										<feature> 24 </feature>
										<threshold> 0.87109375 </threshold>
										<split pos="left">
											<output> 0.11844192445278168 </output>
										</split>
										<split pos="right">
											<output> 0.3189152777194977 </output>
										</split>
									</split>
									<split pos="right">
										<output> -1.0994632244110107 </output>
									</split>
								</split>
								<split pos="right">
									<output> 0.831822395324707 </output>
								</split>
							</split>
							<split pos="right">
								<output> 1.0317959785461426 </output>
							</split>
						</split>
						<split pos="right">
							<output> -0.5640117526054382 </output>
						</split>
					</split>
				</split>
				<split pos="right">
					<output> 0.30209866166114807 </output>
				</split>
			</split>
			<split pos="right">
				<feature> 26 </feature>
				<threshold> 0.8984375 </threshold>
				<split pos="left">
					<output> -0.06664911657571793 </output>
				</split>
				<split pos="right">
					<output> -0.3972233235836029 </output>
				</split>
			</split>
		</split>
	</tree>
	<tree id="43" weight="0.1">
		<split>
			<feature> 24 </feature>
			<threshold> 0.87109375 </threshold>
			<split pos="left">
				<feature> 23 </feature>
				<threshold> 0.93359375 </threshold>
				<split pos="left">
					<feature> 39 </feature>
					<threshold> 0.921875 </threshold>
					<split pos="left">
						<feature> 16 </feature>
						<threshold> 0.1171875 </threshold>
						<split pos="left">
							<feature> 28 </feature>
							<threshold> 0.9140625 </threshold>
							<split pos="left">
								<feature> 44 </feature>
								<threshold> 0.125 </threshold>
								<split pos="left">
									<output> -0.3002129793167114 </output>
								</split>
								<split pos="right">
									<output> 0.29251331090927124 </output>
								</split>
							</split>
							<split pos="right">
								<output> 0.35001906752586365 </output>
							</split>
						</split>
						<split pos="right">
							<output> 0.28431010246276855 </output>
						</split>
					</split>
					<split pos="right">
						<output> 0.6125847101211548 </output>
					</split>
				</split>
				<split pos="right">
					<output> -0.4469592869281769 </output>
				</split>
			</split>
			<split pos="right">
				<feature> 5 </feature>
				<threshold> 0.11328125 </threshold>
				<split pos="left">
					<feature> 5 </feature>
					<threshold> 0.1015625 </threshold>
					<split pos="left">
						<feature> 24 </feature>
						<threshold> 0.89453125 </threshold>
						<split pos="left">
							<output> 0.603630542755127 </output>
						</split>
						<split pos="right">
							<output> 0.04221649840474129 </output>
						</split>
					</split>
					<split pos="right">
						<output> 0.7170876264572144 </output>
					</split>
				</split>
				<split pos="right">
					<output> -0.17890195548534393 </output>
				</split>
			</split>
		</split>
	</tree>
	<tree id="44" weight="0.1">
		<split>
			<feature> 40 </feature>
			<threshold> 0.53515625 </threshold>
			<split pos="left">
				<output> -0.3367179334163666 </output>
			</split>
			<split pos="right">
				<feature> 18 </feature>
				<threshold> 0.91796875 </threshold>
				<split pos="left">
					<feature> 18 </feature>
					<threshold> 0.91015625 </threshold>
					<split pos="left">
						<feature> 24 </feature>
						<threshold> 0.87109375 </threshold>
						<split pos="left">
							<feature> 23 </feature>
							<threshold> 0.93359375 </threshold>
							<split pos="left">
								<feature> 39 </feature>
								<threshold> 0.921875 </threshold>
								<split pos="left">
									<feature> 28 </feature>
									<threshold> 0.9140625 </threshold>
									<split pos="left">
										<output> 0.029833441600203514 </output>
									</split>
									<split pos="right">
										<output> 0.39288079738616943 </output>
									</split>
								</split>
								<split pos="right">
									<output> 0.5555147528648376 </output>
								</split>
							</split>
							<split pos="right">
								<output> -0.36714357137680054 </output>
							</split>
						</split>
						<split pos="right">
							<feature> 46 </feature>
							<threshold> 0.09375 </threshold>
							<split pos="left">
								<feature> 46 </feature>
								<threshold> 0.03515625 </threshold>
								<split pos="left">
									<output> 0.08388128876686096 </output>
								</split>
								<split pos="right">
									<output> 0.646849513053894 </output>
								</split>
							</split>
							<split pos="right">
								<output> -0.11774115264415741 </output>
							</split>
						</split>
					</split>
					<split pos="right">
						<output> 1.0124236345291138 </output>
					</split>
				</split>
				<split pos="right">
					<output> -0.3808242678642273 </output>
				</split>
			</split>
		</split>
	</tree>
	<tree id="45" weight="0.1">
		<split>
			<feature> 19 </feature>
			<threshold> 0.23828125 </threshold>
			<split pos="left">
				<feature> 39 </feature>
				<threshold> 0.52734375 </threshold>
				<split pos="left">
					<output> -0.25210657715797424 </output>
				</split>
				<split pos="right">
					<feature> 21 </feature>
					<threshold> 0.30859375 </threshold>
					<split pos="left">
						<output> 0.9044002294540405 </output>
					</split>
					<split pos="right">
						<feature> 28 </feature>
						<threshold> 0.9140625 </threshold>
						<split pos="left">
							<feature> 19 </feature>
							<threshold> 0.22265625 </threshold>
							<split pos="left">
								<feature> 29 </feature>
								<threshold> 0.96484375 </threshold>
								<split pos="left">
									<feature> 29 </feature>
									<threshold> 0.9609375 </threshold>
									<split pos="left">
										<feature> 29 </feature>
										<threshold> 0.8984375 </threshold>
										<split pos="left">
											<output> 0.040780067443847656 </output>
										</split>
										<split pos="right">
											<output> 0.792381227016449 </output>
										</split>
									</split>
									<split pos="right">
										<output> 1.0584050416946411 </output>
									</split>
								</split>
								<split pos="right">
									<output> -0.5815504193305969 </output>
								</split>
							</split>
							<split pos="right">
								<output> 0.6895250082015991 </output>
							</split>
						</split>
						<split pos="right">
							<output> 0.28552481532096863 </output>
						</split>
					</split>
				</split>
			</split>
			<split pos="right">
				<feature> 26 </feature>
				<threshold> 0.99609375 </threshold>
				<split pos="left">
					<output> -0.07100499421358109 </output>
				</split>
				<split pos="right">
					<output> -0.40369051694869995 </output>
				</split>
			</split>
		</split>
	</tree>
	<tree id="46" weight="0.1">
		<split>
			<feature> 40 </feature>
			<threshold> 0.53515625 </threshold>
			<split pos="left">
				<output> -0.3089824318885803 </output>
			</split>
			<split pos="right">
				<feature> 27 </feature>
				<threshold> 0.984375 </threshold>
				<split pos="left">
					<feature> 27 </feature>
					<threshold> 0.77734375 </threshold>
					<split pos="left">
						<feature> 42 </feature>
						<threshold> 0.0546875 </threshold>
						<split pos="left">
							<output> 0.30182740092277527 </output>
						</split>
						<split pos="right">
							<feature> 26 </feature>
							<threshold> 0.87890625 </threshold>
							<split pos="left">
								<feature> 19 </feature>
								<threshold> 0.0 </threshold>
								<split pos="left">
									<output> -0.63018798828125 </output>
								</split>
								<split pos="right">
									<feature> 44 </feature>
									<threshold> 0.02734375 </threshold>
									<split pos="left">
										<feature> 17 </feature>
										<threshold> 0.05859375 </threshold>
										<split pos="left">
											<feature> 28 </feature>
											<threshold> 0.6015625 </threshold>
											<split pos="left">
												<output> 0.15574908256530762 </output>
											</split>
											<split pos="right">
												<output> 0.9912389516830444 </output>
											</split>
										</split>
										<split pos="right">
											<output> -0.187844917178154 </output>
										</split>
									</split>
									<split pos="right">
										<output> 0.24989621341228485 </output>
									</split>
								</split>
							</split>
							<split pos="right">
								<output> -0.44873982667922974 </output>
							</split>
						</split>
					</split>
					<split pos="right">
						<output> 0.5254799723625183 </output>
					</split>
				</split>
				<split pos="right">
					<output> -0.18232673406600952 </output>
				</split>
			</split>
		</split>
	</tree>
	<tree id="47" weight="0.1">
		<split>
			<feature> 21 </feature>
			<threshold> 0.6640625 </threshold>
			<split pos="left">
				<feature> 24 </feature>
				<threshold> 0.9765625 </threshold>
				<split pos="left">
					<output> -0.15670381486415863 </output>
				</split>
				<split pos="right">
					<output> 0.6271849870681763 </output>
				</split>
			</split>
			<split pos="right">
				<feature> 37 </feature>
				<threshold> 0.6328125 </threshold>
				<split pos="left">
					<output> 0.8055816292762756 </output>
				</split>
				<split pos="right">
					<feature> 15 </feature>
					<threshold> 0.00390625 </threshold>
					<split pos="left">
						<output> 1.126965880393982 </output>
					</split>
					<split pos="right">
						<feature> 19 </feature>
						<threshold> 0.5234375 </threshold>
						<split pos="left">
							<feature> 16 </feature>
							<threshold> 0.00390625 </threshold>
							<split pos="left">
								<output> -0.438916951417923 </output>
							</split>
							<split pos="right">
								<feature> 25 </feature>
								<threshold> 0.48046875 </threshold>
								<split pos="left">
									<feature> 41 </feature>
									<threshold> 0.454545 </threshold>
									<split pos="left">
										<feature> 30 </feature>
										<threshold> 0.9609375 </threshold>
										<split pos="left">
											<output> -0.02106909453868866 </output>
										</split>
										<split pos="right">
											<output> -0.9077996611595154 </output>
										</split>
									</split>
									<split pos="right">
										<output> 0.2641889750957489 </output>
									</split>
								</split>
								<split pos="right">
									<output> 0.24831204116344452 </output>
								</split>
							</split>
						</split>
						<split pos="right">
							<output> -0.27143827080726624 </output>
						</split>
					</split>
				</split>
			</split>
		</split>
	</tree>
	<tree id="48" weight="0.1">
		<split>
			<feature> 27 </feature>
			<threshold> 0.984375 </threshold>
			<split pos="left">
				<feature> 12 </feature>
				<threshold> 0.421875 </threshold>
				<split pos="left">
					<feature> 28 </feature>
					<threshold> 0.76953125 </threshold>
					<split pos="left">
						<feature> 26 </feature>
						<threshold> 0.60546875 </threshold>
						<split pos="left">
							<feature> 39 </feature>
							<threshold> 0.89453125 </threshold>
							<split pos="left">
								<feature> 24 </feature>
								<threshold> 0.8359375 </threshold>
								<split pos="left">
									<feature> 23 </feature>
									<threshold> 0.86328125 </threshold>
									<split pos="left">
										<output> -0.12337620556354523 </output>
									</split>
									<split pos="right">
										<output> 0.5121212005615234 </output>
									</split>
								</split>
								<split pos="right">
									<output> 0.24520394206047058 </output>
								</split>
							</split>
							<split pos="right">
								<feature> 30 </feature>
								<threshold> 0.84765625 </threshold>
								<split pos="left">
									<feature> 30 </feature>
									<threshold> 0.8359375 </threshold>
									<split pos="left">
										<output> -0.09298307448625565 </output>
									</split>
									<split pos="right">
										<output> 1.1758519411087036 </output>
									</split>
								</split>
								<split pos="right">
									<output> -1.1899950504302979 </output>
								</split>
							</split>
						</split>
						<split pos="right">
							<output> 0.524852454662323 </output>
						</split>
					</split>
					<split pos="right">
						<output> -0.6299286484718323 </output>
					</split>
				</split>
				<split pos="right">
					<output> 0.2896910607814789 </output>
				</split>
			</split>
			<split pos="right">
				<output> -0.19966869056224823 </output>
			</split>
		</split>
	</tree>
	<tree id="49" weight="0.1">
		<split>
			<feature> 3 </feature>
			<threshold> 0.7 </threshold>
			<split pos="left">
				<feature> 32 </feature>
				<threshold> 0.75390625 </threshold>
				<split pos="left">
					<feature> 24 </feature>
					<threshold> 0.796875 </threshold>
					<split pos="left">
						<output> -0.12241385132074356 </output>
					</split>
					<split pos="right">
						<feature> 40 </feature>
						<threshold> 0.60546875 </threshold>
						<split pos="left">
							<output> 2.061833381652832 </output>
						</split>
						<split pos="right">
							<feature> 26 </feature>
							<threshold> 0.7578125 </threshold>
							<split pos="left">
								<feature> 18 </feature>
								<threshold> 0.890625 </threshold>
								<split pos="left">
									<feature> 30 </feature>
									<threshold> 0.98046875 </threshold>
									<split pos="left">
										<feature> 13 </feature>
										<threshold> 0.8828125 </threshold>
										<split pos="left">
											<feature> 28 </feature>
											<threshold> 0.6015625 </threshold>
											<split pos="left">
												<output> 0.10582384467124939 </output>
											</split>
											<split pos="right">
												<output> -1.1782946586608887 </output>
											</split>
										</split>
										<split pos="right">
											<output> -3.6932990550994873 </output>
										</split>
									</split>
									<split pos="right">
										<output> 1.2774561643600464 </output>
									</split>
								</split>
								<split pos="right">
									<output> -1.8404502868652344 </output>
								</split>
							</split>
							<split pos="right">
								<output> 0.4955976605415344 </output>
							</split>
						</split>
					</split>
				</split>
				<split pos="right">
					<output> -0.6775559782981873 </output>
				</split>
			</split>
			<split pos="right">
				<output> 0.14074541628360748 </output>
			</split>
		</split>
	</tree>
	<tree id="50" weight="0.1">
		<split>
			<feature> 13 </feature>
			<threshold> 0.51953125 </threshold>
			<split pos="left">
				<feature> 16 </feature>
				<threshold> 0.16015625 </threshold>
				<split pos="left">
					<feature> 24 </feature>
					<threshold> 0.97265625 </threshold>
					<split pos="left">
						<feature> 40 </feature>
						<threshold> 0.9375 </threshold>
						<split pos="left">
							<feature> 24 </feature>
							<threshold> 0.87109375 </threshold>
							<split pos="left">
								<output> -0.26375123858451843 </output>
							</split>
							<split pos="right">
								<output> 0.26174741983413696 </output>
							</split>
						</split>
						<split pos="right">
							<output> -0.8394580483436584 </output>
						</split>
					</split>
					<split pos="right">
						<output> 0.24369975924491882 </output>
					</split>
				</split>
				<split pos="right">
					<output> 0.16981695592403412 </output>
				</split>
			</split>
			<split pos="right">
				<feature> 46 </feature>
				<threshold> 0.0 </threshold>
				<split pos="left">
					<output> -0.5459066033363342 </output>
				</split>
				<split pos="right">
					<feature> 1 </feature>
					<threshold> 0.1484375 </threshold>
					<split pos="left">
						<feature> 20 </feature>
						<threshold> 0.00390625 </threshold>
						<split pos="left">
							<output> -0.2936477065086365 </output>
						</split>
						<split pos="right">
							<feature> 18 </feature>
							<threshold> 0.27734375 </threshold>
							<split pos="left">
								<output> 0.6299883127212524 </output>
							</split>
							<split pos="right">
								<output> 0.28071272373199463 </output>
							</split>
						</split>
					</split>
					<split pos="right">
						<output> -0.3066699504852295 </output>
					</split>
				</split>
			</split>
		</split>
	</tree>
	<tree id="51" weight="0.1">
		<split>
			<feature> 42 </feature>
			<threshold> 0.03125 </threshold>
			<split pos="left">
				<output> 0.24468334019184113 </output>
			</split>
			<split pos="right">
				<feature> 21 </feature>
				<threshold> 0.96484375 </threshold>
				<split pos="left">
					<feature> 21 </feature>
					<threshold> 0.9609375 </threshold>
					<split pos="left">
						<feature> 13 </feature>
						<threshold> 0.984375 </threshold>
						<split pos="left">
							<feature> 38 </feature>
							<threshold> 0.99609375 </threshold>
							<split pos="left">
								<feature> 40 </feature>
								<threshold> 0.96875 </threshold>
								<split pos="left">
									<feature> 40 </feature>
									<threshold> 0.9375 </threshold>
									<split pos="left">
										<feature> 38 </feature>
										<threshold> 0.98828125 </threshold>
										<split pos="left">
											<feature> 38 </feature>
											<threshold> 0.95703125 </threshold>
											<split pos="left">
												<output> -0.018192414194345474 </output>
											</split>
											<split pos="right">
												<output> -2.869483709335327 </output>
											</split>
										</split>
										<split pos="right">
											<output> 1.257843255996704 </output>
										</split>
									</split>
									<split pos="right">
										<output> -0.7988592982292175 </output>
									</split>
								</split>
								<split pos="right">
									<output> 0.4136037528514862 </output>
								</split>
							</split>
							<split pos="right">
								<output> -0.6721819043159485 </output>
							</split>
						</split>
						<split pos="right">
							<output> 0.22472481429576874 </output>
						</split>
					</split>
					<split pos="right">
						<output> 0.9129958748817444 </output>
					</split>
				</split>
				<split pos="right">
					<output> -0.16347114741802216 </output>
				</split>
			</split>
		</split>
	</tree>
	<tree id="52" weight="0.1">
		<split>
			<feature> 20 </feature>
			<threshold> 0.0078125 </threshold>
			<split pos="left">
				<output> -0.20415036380290985 </output>
			</split>
			<split pos="right">
				<feature> 29 </feature>
				<threshold> 0.65234375 </threshold>
				<split pos="left">
					<feature> 30 </feature>
					<threshold> 0.859375 </threshold>
					<split pos="left">
						<feature> 38 </feature>
						<threshold> 0.8203125 </threshold>
						<split pos="left">
							<feature> 24 </feature>
							<threshold> 0.84765625 </threshold>
							<split pos="left">
								<feature> 40 </feature>
								<threshold> 0.890625 </threshold>
								<split pos="left">
									<feature> 16 </feature>
									<threshold> 0.16015625 </threshold>
									<split pos="left">
										<output> -0.2270926982164383 </output>
									</split>
									<split pos="right">
										<output> 0.18907658755779266 </output>
									</split>
								</split>
								<split pos="right">
									<output> 1.1895982027053833 </output>
								</split>
							</split>
							<split pos="right">
								<output> -0.6164032816886902 </output>
							</split>
						</split>
						<split pos="right">
							<feature> 39 </feature>
							<threshold> 0.84375 </threshold>
							<split pos="left">
								<output> 0.5683712363243103 </output>
							</split>
							<split pos="right">
								<output> -0.013615275733172894 </output>
							</split>
						</split>
					</split>
					<split pos="right">
						<output> -1.306605577468872 </output>
					</split>
				</split>
				<split pos="right">
					<feature> 5 </feature>
					<threshold> 0.015625 </threshold>
					<split pos="left">
						<output> 0.8916143178939819 </output>
					</split>
					<split pos="right">
						<output> 0.14138798415660858 </output>
					</split>
				</split>
			</split>
		</split>
	</tree>
	<tree id="53" weight="0.1">
		<split>
			<feature> 27 </feature>
			<threshold> 0.984375 </threshold>
			<split pos="left">
				<feature> 28 </feature>
				<threshold> 0.9140625 </threshold>
				<split pos="left">
					<feature> 26 </feature>
					<threshold> 0.9140625 </threshold>
					<split pos="left">
						<feature> 16 </feature>
						<threshold> 0.015625 </threshold>
						<split pos="left">
							<output> -0.17875677347183228 </output>
						</split>
						<split pos="right">
							<feature> 26 </feature>
							<threshold> 0.91015625 </threshold>
							<split pos="left">
								<feature> 29 </feature>
								<threshold> 0.47265625 </threshold>
								<split pos="left">
									<feature> 36 </feature>
									<threshold> 0.99609375 </threshold>
									<split pos="left">
										<feature> 31 </feature>
										<threshold> 0.28515625 </threshold>
										<split pos="left">
											<feature> 32 </feature>
											<threshold> 0.51953125 </threshold>
											<split pos="left">
												<output> 0.011885639280080795 </output>
											</split>
											<split pos="right">
												<output> 1.4839468002319336 </output>
											</split>
										</split>
										<split pos="right">
											<output> -0.683383047580719 </output>
										</split>
									</split>
									<split pos="right">
										<output> 0.8961171507835388 </output>
									</split>
								</split>
								<split pos="right">
									<output> 0.36698853969573975 </output>
								</split>
							</split>
							<split pos="right">
								<output> 1.0459531545639038 </output>
							</split>
						</split>
					</split>
					<split pos="right">
